digraph Tree {
node [shape=box] ;
0 [label="X[4] <= 3.5\nentropy = 0.9991\nsamples = 8124\nvalue = [3916, 4208]"] ;
1 [label="X[4] <= 0.5\nentropy = 0.4093\nsamples = 4584\nvalue = [376, 4208]"] ;
0 -> 1 [labeldistance=2.5, labelangle=45, headlabel="True"] ;
2 [label="entropy = 0.0\nsamples = 256\nvalue = [256, 0]"] ;
1 -> 2 ;
3 [label="X[19] <= 3.5\nentropy = 0.1829\nsamples = 4328\nvalue = [120, 4208]"] ;
1 -> 3 ;
4 [label="entropy = 0.0\nsamples = 3488\nvalue = [0, 3488]"] ;
3 -> 4 ;
5 [label="X[10] <= 3.0\nentropy = 0.5917\nsamples = 840\nvalue = [120, 720]"] ;
3 -> 5 ;
6 [label="X[19] <= 4.5\nentropy = 0.9986\nsamples = 184\nvalue = [88, 96]"] ;
5 -> 6 ;
7 [label="X[20] <= 4.5\nentropy = 0.5917\nsamples = 112\nvalue = [16, 96]"] ;
6 -> 7 ;
8 [label="entropy = 0.0\nsamples = 96\nvalue = [0, 96]"] ;
7 -> 8 ;
9 [label="entropy = 0.0\nsamples = 16\nvalue = [16, 0]"] ;
7 -> 9 ;
10 [label="entropy = 0.0\nsamples = 72\nvalue = [72, 0]"] ;
6 -> 10 ;
11 [label="X[7] <= 0.5\nentropy = 0.2812\nsamples = 656\nvalue = [32, 624]"] ;
5 -> 11 ;
12 [label="entropy = 0.0\nsamples = 32\nvalue = [32, 0]"] ;
11 -> 12 ;
13 [label="entropy = 0.0\nsamples = 624\nvalue = [0, 624]"] ;
11 -> 13 ;
14 [label="entropy = 0.0\nsamples = 3540\nvalue = [3540, 0]"] ;
0 -> 14 [labeldistance=2.5, labelangle=-45, headlabel="False"] ;
}